// AUTO-GENERATED by nn_classifier/export_v20_weights.py — DO NOT EDIT.
// (Renamed for in-tree clarity; the export script still produces this content —
//  update the script's output filename/namespace/guard if it is regenerated.)
// Source checkpoint: homology_classifier_cv0_v20.pt
// best_val_roc_auc = 0.9732961943207084
// generated 2026-06-11 21:56:30
#ifndef LOLALIGN_PROBABILITY_WEIGHTS_H
#define LOLALIGN_PROBABILITY_WEIGHTS_H

namespace lolprobw {

static const int   N_FEAT  = 39;
static const int   H0      = 32;
static const int   H1      = 16;

// feature order (must match LoLAlignProbability feature assembly):
// evalue, log_evalue, bits, log_bits, lddt, log_alnlen, gap_frac, gap_frac_real, q_anf_b0, q_anf_b1, q_anf_b2, q_anf_b3, q_anf_b4, q_anf_b5, q_anf_b6, t_anf_b0, t_anf_b1, t_anf_b2, t_anf_b3, t_anf_b4, t_anf_b5, t_anf_b6, tamax_b0, tamax_b1, tamax_b2, tamax_b3, tamax_b4, qsep_b0, qsep_b1, qsep_b2, qsep_b3, qsep_b4, qsep_b5, qfrac_b0, qfrac_b1, qfrac_b2, qfrac_b3, qfrac_b4, qfrac_b5

static const float FEAT_MEAN[39] = {
    3.740648270e+01f, 2.889083385e+00f, 4.839165527e+03f, 7.167145252e+00f, 3.325579166e-01f, 4.694316864e+00f, 5.414887890e-02f, 5.050286055e-01f,
    2.980737984e-01f, 2.527636290e-01f, 1.145145893e-01f, 1.081412435e-01f, 9.711968899e-02f, 9.356243908e-02f, 3.578357026e-02f, 2.965520322e-01f,
    2.264763564e-01f, 1.078136936e-01f, 1.144023240e-01f, 1.127878129e-01f, 1.047617048e-01f, 3.714322671e-02f, 1.061931476e-01f, 1.715192795e-01f,
    2.686898112e-01f, 3.674406111e-01f, 3.129378259e-01f, 1.079020649e-01f, 1.698313355e-01f, 2.233812958e-01f, 1.734836251e-01f, 1.993762106e-01f,
    1.250195205e-01f, 7.679118514e-01f, 5.043769479e-01f, 4.192759991e-01f, 4.043396413e-01f, 3.952555954e-01f, 2.923567891e-01f,
};
static const float FEAT_STD[39] = {
    3.792906570e+01f, 1.438737202e+01f, 8.149223145e+03f, 1.987863064e+00f, 1.634184569e-01f, 1.199596882e+00f, 3.527151048e-02f, 2.962077856e-01f,
    4.291663766e-01f, 3.305095434e-01f, 1.685638875e-01f, 1.646127701e-01f, 1.652415395e-01f, 1.959187686e-01f, 1.286480278e-01f, 4.306502938e-01f,
    3.201698959e-01f, 1.645022184e-01f, 1.696874797e-01f, 1.783900559e-01f, 2.040430903e-01f, 1.309586167e-01f, 7.326426357e-02f, 8.398527652e-02f,
    9.145478904e-02f, 1.344075054e-01f, 2.126345634e-01f, 4.854442552e-02f, 7.675794512e-02f, 8.697093278e-02f, 6.942017376e-02f, 1.011328697e-01f,
    1.351110786e-01f, 1.122214124e-01f, 2.760938108e-01f, 3.302867413e-01f, 3.297549486e-01f, 3.336081505e-01f, 3.354302049e-01f,
};

// Linear 39 -> 32  (row-major: W0[o*N_FEAT + i])
static const float W0[1248] = {
    -1.421906799e-01f, 1.437777579e-01f, 6.336119175e-01f, 8.063246608e-01f, 2.436975539e-01f, -1.001121104e-01f, 4.419860616e-02f, 1.893574446e-01f,
    8.750722557e-02f, 1.478498876e-01f, 1.117673703e-02f, 7.738220040e-03f, -1.863677241e-02f, 2.976864763e-02f, 4.284980893e-02f, 6.211698800e-02f,
    6.841132790e-02f, -7.558044046e-03f, -2.540205419e-02f, -3.362452239e-02f, -1.624578983e-02f, -3.708015010e-02f, -7.662685961e-02f, 3.768229857e-02f,
    9.936498106e-02f, -1.563919336e-02f, -4.947061092e-02f, -3.513293266e-01f, 1.116461456e-01f, 6.386972964e-02f, 1.317113042e-01f, -1.077900231e-01f,
    3.343293816e-02f, -6.015772000e-03f, 2.324699610e-02f, 1.329368353e-01f, -2.126627136e-03f, 1.365238875e-01f, -6.505009718e-03f, -2.107896805e-01f,
    6.123097241e-02f, -4.296008945e-01f, -9.269330651e-02f, 2.452012599e-01f, -4.881869256e-02f, -2.563334256e-02f, 8.638235927e-02f, 1.140936688e-01f,
    -7.715889066e-02f, -5.788936466e-02f, -9.406834841e-03f, -5.028655007e-02f, -1.315582693e-01f, 1.317062527e-01f, 7.239401340e-02f, -9.089770168e-02f,
    9.677917510e-02f, 8.429092169e-02f, 1.149129644e-01f, -3.604707494e-02f, -1.732893288e-02f, -8.865541220e-02f, 9.586211294e-02f, 1.086265687e-02f,
    9.887886792e-02f, 5.255679041e-02f, 1.847152263e-01f, 3.873614967e-02f, -4.121842980e-01f, 8.733336627e-02f, 2.773034275e-01f, -1.331967860e-01f,
    1.469960958e-01f, -8.968187124e-02f, -2.358850688e-01f, -8.771412820e-02f, -1.371459514e-01f, 1.017432734e-01f, -7.091429085e-02f, 6.944970787e-02f,
    -5.622679591e-01f, -1.943570524e-01f, 1.063141376e-01f, -1.172072515e-01f, 2.899686992e-01f, -6.554257870e-02f, 5.278269202e-02f, -3.120214865e-02f,
    -3.177294508e-02f, 5.216780305e-02f, 1.986692287e-02f, -4.343662411e-02f, 1.452940553e-01f, 6.292691827e-02f, -8.588931710e-02f, -5.498398095e-02f,
    -1.286064624e-03f, -3.690972552e-02f, 3.866758943e-02f, -1.681384072e-02f, -1.485018432e-01f, 7.412748784e-02f, -5.703969672e-02f, 2.034921199e-01f,
    2.404032201e-01f, -1.572104394e-01f, -1.748704910e-01f, 1.115152389e-01f, -1.920155734e-01f, -1.710237861e-01f, 1.054588258e-01f, -3.414808214e-02f,
    7.996563613e-02f, -2.022728920e-01f, -4.490293562e-02f, -3.441508114e-02f, -1.648609713e-02f, -2.163935751e-01f, -2.170945145e-02f, -4.086684287e-01f,
    -1.661305428e-01f, -3.777255118e-02f, -9.066189639e-03f, -1.390536726e-01f, -8.458540589e-02f, -1.264051497e-01f, -1.966191642e-02f, 3.139409050e-02f,
    6.771946698e-02f, 3.591331467e-02f, 6.243203208e-02f, 1.231299415e-01f, 1.109844819e-02f, 4.684547428e-03f, -3.859276697e-02f, -5.790381879e-02f,
    -1.436333507e-01f, -1.868485510e-01f, -7.966936380e-02f, -2.171438038e-01f, 1.600727439e-01f, 4.585118592e-02f, 3.617669642e-02f, -2.368215472e-01f,
    3.045743518e-02f, 1.590889692e-01f, 4.579355568e-02f, 1.541955620e-01f, 4.218954742e-01f, -2.439333498e-01f, 9.489208460e-02f, -9.170142934e-03f,
    3.641182557e-02f, -5.104471743e-02f, 1.962884814e-01f, -3.672058135e-02f, 1.013652328e-02f, 5.085763708e-02f, -1.764623076e-01f, -2.249815762e-01f,
    3.916718438e-02f, 2.952372842e-02f, -6.217795610e-02f, -1.734205186e-01f, 4.789242521e-02f, 1.293511782e-02f, 7.199608535e-02f, 2.215323597e-02f,
    4.297388345e-02f, -7.263499498e-02f, 2.655129135e-02f, 2.912768126e-01f, -1.664856076e-02f, -8.203342557e-02f, -8.763614297e-02f, -1.374813914e-01f,
    -2.620193064e-01f, -6.377779692e-02f, 3.549952433e-02f, -1.007617116e-01f, 8.612836897e-02f, -7.299833000e-02f, -8.392418921e-02f, -6.925874949e-02f,
    1.944246590e-01f, 1.347943693e-01f, 2.075245976e-01f, 6.915801018e-02f, -2.463063747e-01f, 4.567458853e-02f, 1.646072790e-02f, 1.675808243e-02f,
    1.785009354e-01f, 1.901482791e-01f, 1.034912616e-01f, 3.519783318e-01f, 2.536270767e-02f, -6.359281391e-02f, -2.311621159e-01f, -2.703177333e-01f,
    1.255340129e-01f, 2.246535867e-01f, 1.548355818e-01f, 2.682043053e-02f, -4.929834232e-02f, -1.391857862e-01f, -2.307031490e-02f, -2.255796455e-02f,
    5.562585592e-02f, 1.307820529e-01f, -1.620574147e-01f, 2.288561910e-01f, -2.739814483e-02f, 2.805778570e-02f, 5.809184909e-02f, 1.852975488e-01f,
    3.462861180e-01f, -1.940909028e-01f, -2.535088279e-04f, -9.928455949e-02f, -1.156597063e-01f, 1.644539982e-01f, -1.130232736e-01f, -3.769803643e-01f,
    -1.252653450e-01f, 2.175812572e-01f, 2.337195128e-01f, 4.279923066e-02f, -1.919311285e-01f, -9.083026648e-02f, -1.544439942e-01f, 1.413036883e-01f,
    -1.941644102e-01f, 1.989721954e-01f, 4.110769928e-01f, 1.026924103e-01f, 1.996974349e-01f, -3.007536009e-02f, 3.712810278e-01f, -3.154922724e-01f,
    8.646640927e-02f, -7.777174003e-03f, -8.664652705e-04f, -7.823172212e-02f, -2.917794511e-02f, -1.741321683e-01f, -5.851085484e-02f, 6.125765853e-03f,
    -2.681248076e-02f, 9.579928219e-02f, -1.713103652e-01f, -7.467769086e-02f, 1.865194738e-02f, -2.185679600e-02f, -3.367964237e-04f, -6.583938003e-02f,
    4.589028284e-02f, -2.073955984e-04f, 1.582339704e-01f, 5.776832346e-03f, 1.575939208e-01f, -2.969035506e-02f, -6.452292204e-02f, -1.282062680e-01f,
    -6.978359073e-02f, 2.306322753e-01f, 9.710230678e-02f, -6.282977760e-02f, -1.070333645e-01f, 3.310789354e-03f, 1.123312563e-01f, -1.697966009e-01f,
    6.003540382e-02f, -1.263957620e-01f, 1.212246642e-01f, 4.038761556e-01f, 4.518669546e-01f, 4.438023269e-01f, -2.282209098e-01f, -7.239250839e-02f,
    3.217529505e-02f, 3.903975012e-03f, -1.590550840e-01f, -2.344879881e-02f, -5.446889997e-02f, -8.844714612e-02f, -1.059507430e-01f, -2.356865816e-02f,
    1.694307476e-01f, -1.553033590e-01f, -2.769643068e-02f, -6.321334839e-02f, -7.775533199e-02f, -1.170803010e-01f, -8.222198486e-02f, -1.516354978e-01f,
    -1.039923131e-01f, 4.442555085e-02f, 9.159100801e-02f, 1.772616059e-02f, -1.381516010e-01f, -6.332341582e-02f, -1.083333045e-03f, 1.103849933e-01f,
    -9.588176757e-02f, 9.549254924e-02f, -9.601239860e-02f, 3.023324348e-02f, 1.491856482e-02f, -3.445594758e-02f, 2.648088336e-01f, 3.891123086e-02f,
    -6.914804876e-02f, 1.473437250e-02f, 1.504043937e-01f, 1.190002859e-01f, 6.832405329e-01f, -3.494888544e-01f, -8.104787767e-02f, 1.012690291e-01f,
    -7.091365010e-02f, -6.144427881e-02f, 1.458917707e-01f, -1.688151807e-02f, -9.274974465e-02f, -1.456699520e-01f, -1.260681599e-01f, -3.432268500e-01f,
    -1.376392543e-01f, 1.521725804e-01f, 7.207534462e-02f, 3.291457891e-02f, 1.875670161e-03f, -1.087204181e-02f, 6.253170222e-02f, 1.006800905e-01f,
    -1.960491575e-02f, 1.875531673e-01f, 2.157867141e-02f, 1.569097489e-02f, -1.755470783e-01f, -2.910710126e-02f, 1.863430254e-02f, -1.075314805e-01f,
    -9.298039973e-02f, -4.062651098e-02f, 1.615682244e-01f, -2.252908051e-02f, -2.885498703e-01f, 1.668651253e-01f, 4.353619739e-02f, 2.375204414e-01f,
    1.339598894e-01f, 2.194345891e-01f, -2.600911446e-02f, 2.798196077e-01f, -2.696824074e-02f, 3.189067915e-02f, -2.365721203e-02f, 1.437920630e-01f,
    -3.804750368e-02f, -1.460466236e-01f, -1.150056794e-01f, 8.354903199e-03f, 5.075710639e-02f, 7.388857007e-02f, -3.699406236e-02f, -3.738700598e-02f,
    -2.520752847e-01f, -6.912014633e-02f, -5.377603229e-03f, 1.570119709e-01f, 1.369187534e-01f, -5.978879705e-02f, -6.150648370e-02f, -5.744319782e-02f,
    3.022403270e-02f, -3.540791869e-01f, 2.144182026e-01f, -1.929677725e-01f, 4.323562384e-01f, -6.918194704e-03f, -4.876290634e-02f, -8.960251510e-02f,
    -6.812366098e-02f, 1.566584706e-01f, -1.496652048e-02f, -5.592040345e-02f, 3.579613566e-02f, -1.876383424e-01f, 1.442492008e-01f, -1.671124995e-02f,
    4.342752695e-01f, 3.761230409e-01f, 4.096049368e-01f, -3.625210524e-01f, 3.576046228e-02f, 2.010367438e-02f, 1.000245064e-01f, -4.291567579e-02f,
    -4.839188233e-02f, 8.603078313e-03f, -1.241666358e-02f, -9.184343740e-03f, 3.572996706e-02f, -1.635140032e-01f, -1.812013686e-01f, -5.654119700e-02f,
    7.493793382e-04f, 6.463403814e-03f, -1.079989690e-02f, 4.697176628e-03f, -2.861550450e-02f, 5.285914615e-02f, 1.223648489e-01f, 4.282823950e-02f,
    -2.437800914e-02f, -6.638537347e-02f, -1.783647388e-01f, 7.525596023e-02f, -3.059671074e-02f, -4.298444837e-02f, 2.009889483e-02f, -5.875561759e-02f,
    6.901489198e-02f, 8.062094450e-02f, -1.351101696e-01f, -1.066745222e-01f, -4.125751182e-02f, 2.283204161e-02f, 3.321570903e-02f, -2.267527580e-01f,
    -7.169070095e-02f, 6.818851084e-02f, -1.712460071e-01f, 1.023933664e-01f, -2.613649145e-02f, -5.747972522e-03f, -6.457720697e-02f, 8.823735267e-02f,
    3.091572970e-02f, 6.661382318e-02f, -4.629105702e-02f, 5.758565664e-02f, 1.324170977e-01f, -1.260690838e-01f, -1.879968941e-01f, 1.992307752e-01f,
    1.559357941e-01f, -8.172690868e-02f, -2.270314097e-02f, -2.561227679e-01f, 1.080522612e-01f, 1.500640213e-01f, 3.111344874e-01f, 2.362992316e-01f,
    -1.473119557e-01f, 5.966112763e-02f, 2.927918136e-01f, 7.632023096e-02f, -2.629861236e-01f, 9.274236113e-02f, -4.109672830e-02f, -1.456571072e-01f,
    8.393360674e-02f, -8.119508624e-02f, -6.618116051e-02f, -9.803052992e-02f, 2.402854413e-01f, 1.525094211e-01f, 3.604831994e-01f, 3.103591204e-01f,
    3.178515732e-01f, -2.840586901e-01f, 3.117185645e-02f, 4.557187483e-02f, -1.346836332e-02f, -8.761025220e-02f, -2.498555742e-02f, -8.769764006e-02f,
    -3.297337145e-02f, -4.634682089e-02f, -2.894860692e-02f, -2.530999482e-03f, -1.219315454e-01f, 3.302842751e-02f, 1.026947573e-01f, 3.870536759e-02f,
    9.712903947e-02f, 1.695635319e-01f, 2.943358943e-02f, 3.730531782e-02f, 1.158622280e-02f, -4.974649474e-02f, -2.901461534e-02f, -2.249857225e-02f,
    -6.833858043e-02f, 1.372972131e-01f, -5.495462939e-02f, -4.408771172e-02f, 7.575142384e-02f, -9.956563264e-02f, 1.766102761e-02f, 1.278174222e-01f,
    1.288751233e-02f, 7.385489345e-02f, -3.365319595e-02f, -3.153056279e-02f, 1.712515391e-02f, -9.107332677e-03f, 3.645905294e-03f, -1.744272001e-02f,
    -4.342531785e-02f, -1.775999814e-01f, -1.784157157e-01f, -9.302908927e-02f, 7.603833824e-02f, -1.503298283e-01f, 4.745010287e-02f, -1.752689108e-02f,
    2.647746168e-02f, 1.625107676e-01f, -5.063190684e-02f, -1.102619432e-02f, 1.476183534e-01f, -2.125613838e-01f, 1.029380634e-01f, 1.164736003e-01f,
    1.054001451e-01f, -1.396731883e-01f, 8.181506395e-02f, 5.653093755e-02f, -7.027413696e-02f, 1.031900793e-01f, 1.153190900e-02f, -3.535739612e-03f,
    -1.128647476e-01f, 2.415450364e-01f, -1.855385900e-01f, 6.440036744e-02f, -3.417165950e-02f, 3.046495281e-02f, -5.747476593e-03f, 5.998934060e-02f,
    1.492785066e-01f, -3.962749615e-02f, 2.114764601e-01f, 1.183077171e-01f, 2.525620461e-01f, 2.165416814e-02f, 1.415537447e-01f, 1.641461998e-02f,
    -2.421774715e-02f, 1.689452678e-01f, -3.206159174e-02f, -1.515869349e-01f, 5.487773102e-03f, 6.516255438e-02f, 9.378515929e-02f, 1.389118582e-01f,
    1.816475987e-01f, 9.391105920e-02f, 3.262401558e-03f, -1.900340766e-01f, -2.399427146e-01f, -1.419283003e-01f, -6.643743068e-02f, 4.327958822e-02f,
    -2.474198639e-01f, -1.642277986e-01f, -2.659715526e-02f, -3.002477884e-01f, -3.328010142e-01f, 1.528032124e-01f, 3.806169331e-02f, 1.682924293e-02f,
    -2.339285463e-01f, 1.181258187e-01f, 6.895090640e-02f, -1.037447825e-01f, 5.772440508e-02f, -6.781512499e-02f, -1.856802218e-02f, 7.808156312e-02f,
    -3.056036122e-02f, 1.441396624e-01f, 6.518108305e-03f, -2.004035264e-01f, -1.028411090e-01f, 3.815432787e-01f, 1.140449867e-01f, -8.944567293e-03f,
    -2.015166543e-02f, -1.235622615e-01f, -6.952116638e-02f, 7.859440148e-02f, 5.318542570e-02f, 6.676111370e-02f, 5.733808875e-02f, 7.357355207e-02f,
    1.080325171e-01f, -2.182600833e-02f, -1.681918502e-01f, -1.883836836e-01f, -2.305028588e-01f, -6.068405136e-02f, 7.559506595e-02f, -1.553391814e-01f,
    6.090455502e-02f, -6.738006137e-03f, -3.376119304e-03f, -2.277448177e-01f, 8.660579473e-02f, 1.147762537e-01f, 4.988987744e-02f, 2.917089462e-01f,
    2.011815161e-01f, -3.989261389e-01f, -1.267574131e-01f, 1.239552423e-01f, 1.694012880e-01f, 1.037193239e-01f, 8.502119780e-02f, -1.472135186e-01f,
    -1.040376630e-02f, 9.277946316e-03f, -3.614212871e-01f, -2.978537381e-01f, -2.440676391e-01f, 1.301162988e-01f, 1.044581011e-01f, -7.578679919e-02f,
    2.375314385e-02f, 7.806396484e-02f, -1.007253230e-01f, 1.083867718e-02f, -1.827224717e-02f, -8.066937327e-02f, -6.925891340e-02f, -1.734806001e-01f,
    3.114780225e-02f, 1.231069490e-02f, 9.391552210e-02f, 1.588497758e-01f, 1.170403324e-02f, 4.827917367e-02f, -4.052243382e-02f, -1.218920276e-01f,
    1.599826366e-01f, -2.473312020e-01f, 1.470388472e-01f, 2.061904073e-01f, -2.048442215e-01f, -1.083624139e-01f, 1.609739512e-01f, 2.198404968e-01f,
    -1.621876657e-01f, -1.116418317e-01f, -5.797243491e-02f, 1.089367270e-01f, -1.038589552e-01f, -2.401123522e-03f, -5.033218488e-02f, -1.174327731e-01f,
    9.287882596e-02f, 7.722691894e-01f, 7.871683836e-01f, 3.288351893e-01f, -1.480909437e-01f, -2.714274637e-02f, -3.016274190e-03f, 1.886011809e-01f,
    1.892931759e-01f, 3.730686754e-02f, 4.381323233e-03f, -9.536702186e-03f, -6.919389963e-02f, -8.155663311e-02f, -8.768574148e-02f, 5.363664124e-03f,
    3.950421885e-02f, 3.652039450e-03f, -1.656243391e-02f, -3.052038513e-02f, -6.198208779e-02f, -1.776812598e-02f, 3.570606560e-02f, 5.136127397e-02f,
    2.966828272e-02f, -6.328929961e-02f, -1.256229579e-01f, 1.490069330e-01f, 1.469025761e-01f, 3.656157851e-02f, 4.641376436e-02f, 9.840273112e-02f,
    -3.566506878e-02f, 1.156835556e-01f, 2.364137396e-02f, -9.699805826e-02f, 1.716676354e-01f, -1.020705421e-02f, 1.155984402e-02f, -4.177058861e-02f,
    1.132276878e-01f, -7.206882536e-02f, 2.684274316e-01f, -8.189498633e-02f, -1.162393391e-01f, 1.457200665e-02f, 2.120724507e-02f, 3.226820379e-02f,
    5.346483365e-02f, -2.436246574e-01f, 1.728032231e-01f, 1.315581799e-01f, 1.035696939e-01f, -1.399400383e-01f, -6.661348045e-02f, -2.102579325e-01f,
    -1.206186041e-01f, 7.596739382e-02f, 9.002967179e-02f, 1.861110181e-01f, -4.474001378e-02f, 1.180816907e-02f, -1.261313856e-01f, -3.112690151e-01f,
    -5.597717762e-01f, 1.251237281e-02f, 6.724327803e-02f, -1.394702941e-01f, -1.857536100e-02f, 2.520026863e-01f, -1.376565099e-01f, 1.528243273e-01f,
    -9.585729986e-02f, -5.946262926e-02f, 8.308532089e-02f, 1.130838469e-01f, -1.272985619e-02f, 4.991519824e-02f, -2.367296815e-02f, -1.514609605e-01f,
    -3.107003868e-01f, -7.832653075e-02f, 1.839564145e-01f, -1.007053703e-01f, -2.117261849e-02f, 1.268513501e-03f, 4.040972516e-02f, 1.427701712e-01f,
    2.601610124e-02f, 2.640188672e-02f, 1.214484051e-01f, 2.167645395e-01f, 1.710302681e-01f, -6.520754099e-02f, -6.952516735e-02f, 2.618965320e-02f,
    -7.483115792e-02f, -7.821966708e-02f, -1.851572283e-02f, -1.968905777e-01f, -1.802465692e-02f, 1.383363158e-01f, 9.841778874e-02f, -2.447583079e-01f,
    2.545857988e-02f, 1.541482359e-01f, 1.245771274e-01f, 9.058357775e-02f, 1.569254547e-01f, -2.982215285e-01f, -2.702764794e-02f, 1.030876674e-02f,
    6.700064242e-02f, 1.620682925e-01f, 2.026064992e-01f, 5.045856163e-02f, -4.710397869e-02f, -2.597756311e-02f, 1.720300317e-01f, 2.854246199e-01f,
    1.643733233e-01f, -5.835003853e-01f, 8.228348196e-02f, 3.013727069e-01f, 3.285434097e-02f, -7.877521217e-02f, -3.159292787e-02f, 1.752387136e-01f,
    5.964297056e-02f, -6.741014123e-02f, 3.015277162e-02f, -2.437196672e-01f, -1.151347831e-01f, 1.379501224e-01f, -2.774964459e-02f, 1.487034746e-02f,
    1.607271470e-02f, 5.339911953e-02f, -2.183305323e-01f, 2.244010940e-02f, 3.499852493e-02f, -6.761670858e-02f, 3.641179949e-02f, 2.358768135e-01f,
    6.886735559e-02f, 4.726169165e-03f, -1.483036280e-01f, 4.701253399e-02f, -6.880798936e-02f, -1.245762873e-02f, -2.478259616e-02f, -3.208740801e-02f,
    5.305255204e-02f, 2.911829650e-01f, -5.563025922e-02f, 2.858965397e-01f, 4.435875267e-02f, -6.103902683e-02f, -3.480767012e-01f, -8.611715585e-02f,
    1.752805151e-02f, 1.066585705e-01f, 1.110156476e-01f, -9.063865244e-02f, 1.138948947e-01f, 2.854101732e-02f, 8.417984098e-02f, 3.895761445e-02f,
    -2.189930081e-01f, -2.497751452e-02f, -6.059819087e-02f, 6.715428829e-02f, -2.200119942e-02f, 6.958120037e-03f, -2.479965100e-03f, -1.912716627e-01f,
    6.702710688e-02f, -7.096012682e-02f, 3.667709604e-02f, 3.197070211e-02f, -1.832177043e-01f, -1.465469748e-01f, 3.308495581e-01f, -5.543494225e-01f,
    2.134275138e-01f, 1.868914515e-01f, 4.026732743e-01f, -1.801662743e-01f, -1.297057420e-01f, 7.312763482e-02f, -5.208838731e-03f, -1.387254447e-01f,
    4.988520220e-02f, 1.626520306e-01f, 3.597733378e-01f, 1.480728239e-01f, 3.244022429e-01f, -1.889452189e-01f, 4.177110195e-01f, -4.145701826e-01f,
    4.148585722e-02f, 1.167897880e-01f, 1.288867742e-01f, 7.471287996e-02f, -6.253693718e-03f, 5.002149846e-04f, 2.422024123e-02f, 4.898552224e-02f,
    2.810348757e-02f, -1.400084496e-01f, 4.457265511e-02f, 4.915929958e-02f, 7.104576379e-02f, 9.520561993e-02f, 1.198581681e-01f, 5.929119140e-02f,
    6.490553916e-02f, 4.458452389e-02f, -3.272997960e-02f, 3.337715566e-02f, 3.036768408e-03f, 2.232095301e-01f, -1.207583472e-01f, 9.606850147e-02f,
    1.442469377e-02f, 1.874269694e-01f, 4.354505241e-02f, -1.705742329e-01f, -1.685526520e-01f, 8.443727344e-02f, 4.539248720e-02f, 6.432754453e-03f,
    -4.310065508e-02f, -1.973292381e-01f, 4.442954902e-03f, -3.635243773e-01f, -8.769465610e-03f, 1.854069531e-01f, 7.436355576e-03f, -3.221988305e-02f,
    8.222807944e-02f, 1.191308498e-01f, -1.092122048e-01f, 1.200363040e-03f, -5.510678049e-03f, -1.149730012e-01f, -2.379261255e-01f, 1.425673366e-01f,
    2.596400082e-01f, 5.984249990e-03f, 1.780053526e-01f, -5.305009428e-03f, -6.026696786e-02f, 3.855326772e-02f, -9.480527788e-02f, 5.616486818e-02f,
    5.815790594e-02f, 2.975941896e-01f, -7.213784009e-02f, 1.924474724e-02f, 2.222920805e-01f, 4.963063635e-03f, -2.501785755e-01f, 2.700979710e-01f,
    5.667437240e-02f, -1.247912124e-01f, 1.164109409e-01f, -1.102724373e-01f, -1.597767323e-01f, -9.143580496e-02f, -8.529009670e-02f, -7.006452978e-02f,
    -1.758585721e-01f, 1.899515465e-02f, -2.522714436e-01f, -1.706620157e-01f, -9.288045019e-02f, -1.269882917e-01f, 4.783635959e-03f, 4.365944862e-02f,
    -5.562906340e-02f, -8.781787753e-02f, -1.020789817e-01f, -4.725912958e-02f, -2.405029908e-02f, -1.308558695e-02f, -1.237825602e-01f, 9.977741539e-02f,
    1.291344911e-01f, 7.304234803e-02f, 3.707769513e-02f, -1.768171787e-01f, -1.677231193e-01f, -1.182276681e-01f, 1.305371523e-01f, 8.208663762e-02f,
    6.374616176e-02f, 5.578399170e-03f, -1.240671799e-01f, 4.270732403e-02f, -3.207237720e-01f, 4.020967185e-01f, 1.227389947e-01f, 1.096628383e-01f,
    -1.787105799e-01f, -1.329431087e-01f, 2.637200058e-02f, 1.535807252e-01f, 4.598794971e-03f, -7.791321725e-02f, 1.318790019e-01f, -1.911236793e-01f,
    -8.792927489e-03f, -3.318908215e-01f, 1.567125134e-02f, 2.457484603e-01f, -4.030421749e-02f, 5.029631406e-02f, 7.734627277e-02f, 1.587911993e-01f,
    -1.600592881e-01f, -3.152143583e-02f, 3.216886893e-03f, 2.815319598e-02f, 4.685953632e-02f, -1.917560399e-02f, 8.135179430e-02f, -8.449602127e-02f,
    1.965870848e-03f, 2.230256051e-02f, 9.239598364e-02f, -3.877106681e-02f, 2.026895247e-02f, -1.367313601e-02f, 2.442485467e-02f, -1.003528163e-01f,
    2.788592875e-01f, 1.582061052e-01f, -1.249955222e-01f, 1.155703068e-01f, -2.245724052e-01f, -1.538830549e-01f, -1.936297715e-01f, 2.976845950e-02f,
    -1.463657171e-01f, -6.170416996e-02f, -6.495910883e-02f, -1.533354912e-02f, -1.799154878e-01f, 2.487866906e-03f, 6.389441341e-02f, 5.839425698e-02f,
    8.862414956e-02f, 2.980636954e-01f, 3.304855227e-01f, -1.812837571e-01f, -4.228121787e-02f, -8.285885677e-03f, -5.293465406e-02f, -2.617993653e-01f,
    1.504777521e-01f, 3.196130320e-02f, -2.560809255e-03f, -7.014077157e-02f, 6.935341656e-02f, -1.271518022e-01f, -4.350706935e-02f, 2.931467071e-02f,
    1.336813089e-03f, -3.048536181e-02f, -2.458771458e-03f, 1.499356776e-01f, 2.079734695e-04f, -3.746896610e-02f, 1.332933363e-02f, -5.172028672e-03f,
    7.517843973e-03f, 6.260802597e-02f, -1.236278713e-01f, 1.061289385e-01f, -2.996196598e-02f, -5.016226321e-02f, 5.477473140e-02f, 6.002384797e-02f,
    3.815951198e-02f, -9.158142656e-02f, 4.751430079e-02f, 9.327558428e-02f, -8.717605961e-04f, 6.794434041e-02f, 7.545095868e-03f, -3.388885260e-01f,
    -3.918150663e-01f, -4.071135223e-01f, 2.199300379e-01f, 6.902382523e-02f, -7.771422714e-02f, 1.074587628e-01f, 3.976137191e-02f, -6.354494020e-03f,
    -4.294498637e-02f, 1.321202368e-01f, 1.153079271e-01f, 2.759611607e-01f, -8.449089527e-02f, 1.525141150e-01f, 9.255557507e-02f, 1.038322821e-01f,
    1.542072892e-01f, 2.174935639e-01f, 2.714513838e-01f, 3.447458521e-02f, -1.089457273e-01f, 5.614990368e-02f, -9.678371996e-02f, 2.794160694e-02f,
    3.573365277e-03f, -2.996411324e-01f, -6.547542661e-02f, -4.971074685e-02f, 5.739155784e-02f, -2.372491173e-02f, 1.189922690e-01f, 1.678902060e-01f,
    -1.270671189e-01f, 6.946566515e-03f, -5.332493410e-02f, -2.203202434e-02f, -2.281696647e-01f, 6.995586306e-02f, -2.096982896e-01f, -2.293832004e-01f,
    -1.407079548e-01f, 2.203985006e-01f, 1.985538751e-01f, 1.754434854e-01f, -1.765509397e-01f, 1.374524832e-01f, 4.789455328e-03f, 1.010079384e-01f,
    3.826049715e-02f, 6.192918122e-02f, 4.351458699e-02f, -9.484918416e-02f, 4.671223089e-02f, -8.171205409e-03f, -5.383141711e-02f, -1.812237129e-02f,
    1.045088470e-02f, 1.657919586e-01f, 2.726031281e-02f, 6.308190525e-02f, 5.927294865e-02f, 6.322320551e-02f, 2.664030157e-02f, 1.351490170e-01f,
    -1.779741645e-01f, -7.679513842e-02f, 1.424344033e-01f, -1.092278212e-02f, -2.799469233e-02f, -2.051909566e-01f, 6.793378294e-02f, 1.905476749e-01f,
    6.509240717e-02f, -1.314160228e-01f, -1.925585717e-01f, 1.386808604e-01f, 9.672697634e-03f, -6.323117614e-01f, -1.309447736e-01f, 4.932143390e-01f,
    -1.615852416e-01f, -2.522131801e-02f, 4.173042625e-02f, -1.499220878e-01f, -2.377061360e-02f, 6.668543816e-02f, 5.492442101e-02f, -6.992187351e-02f,
    3.676354513e-02f, 1.748939045e-02f, -2.277813703e-01f, -1.535678357e-01f, 2.238929123e-01f, 1.012715101e-01f, 1.770327426e-02f, 1.292003840e-01f,
    1.003574431e-01f, -4.450153559e-02f, -1.406186074e-01f, -3.469049558e-02f, 7.775394246e-03f, 1.190887317e-01f, 7.367806137e-02f, 1.358742267e-01f,
    -4.500518441e-01f, 1.842880696e-01f, 3.529807925e-01f, 9.679981321e-02f, 7.913408801e-03f, 1.219043955e-01f, -1.630094945e-01f, -9.679652005e-02f,
    -5.492707342e-02f, 1.466668397e-01f, 3.421843052e-02f, 3.393484978e-03f, 2.202623785e-01f, 2.854057550e-01f, 2.399602234e-01f, -9.477484971e-02f,
    9.562175721e-02f, 1.712274402e-01f, 1.571467370e-01f, -5.193911493e-02f, -5.334956571e-02f, -5.669518560e-02f, -6.204849109e-02f, -1.186033264e-01f,
    9.819711000e-02f, -1.346038282e-01f, -6.769561023e-02f, 5.042495206e-03f, 5.759096891e-02f, 6.140332296e-02f, 4.075556993e-02f, 1.802683771e-01f,
    -1.494685262e-01f, -7.682301849e-02f, 6.087871641e-02f, -2.517217398e-01f, -2.030013651e-01f, 5.465584248e-02f, 2.035034262e-02f, 5.202463642e-02f,
    -1.464048177e-01f, -2.639608681e-01f, 7.558444887e-02f, 8.323265612e-02f, -1.616645902e-01f, -5.346334726e-02f, -2.489368804e-02f, 8.341315389e-02f,
    2.137952596e-01f, 3.491559625e-01f, 1.421818137e-01f, 1.375626028e-01f, 2.779976726e-01f, 5.872716904e-01f, -4.997410774e-01f, 1.197900996e-02f,
    4.543302208e-02f, 1.084049344e-01f, -3.482683375e-02f, -3.976435587e-02f, -6.874459237e-02f, -4.318504408e-02f, 8.628258482e-03f, 6.904777139e-03f,
    5.690256879e-02f, -1.518595964e-01f, -1.567086019e-02f, 3.035905771e-02f, 3.084588051e-02f, 5.503867194e-02f, 1.202648580e-01f, 1.853745990e-02f,
    1.451710588e-03f, -3.952506557e-02f, 1.388772577e-01f, -4.809265584e-02f, -9.914490581e-02f, -1.573551893e-01f, 4.644275084e-02f, 1.718683988e-01f,
    1.267661899e-01f, 7.556652185e-03f, -3.108583018e-02f, -9.289832413e-02f, 1.433169842e-01f, -9.568590671e-02f, -1.751574278e-01f, -5.423533544e-02f,
};
static const float B0[32] = {
    -1.526762992e-01f, 9.468499571e-02f, -9.498704970e-02f, -1.225240976e-01f, -9.641300142e-02f, -1.806545109e-01f, -2.569257021e-01f, 1.476812661e-01f,
    -1.612329781e-01f, 3.365088021e-03f, -1.514313817e-01f, -1.105393991e-01f, -6.154751778e-02f, -1.242360007e-02f, -2.699165344e-01f, -1.901069582e-01f,
    9.055589885e-02f, -5.204296112e-02f, -1.385008395e-01f, -8.295771480e-02f, -1.971450895e-01f, -2.278559506e-01f, -6.739006937e-02f, 1.251670122e-01f,
    1.046476699e-02f, 5.860195681e-02f, -2.596075237e-01f, 3.297256306e-02f, 1.676020622e-01f, 2.664203010e-02f, -1.263905913e-01f, -2.155829519e-01f,
};

// Linear 32 -> 16  (row-major: W1[o*H0 + i])
static const float W1[512] = {
    -2.239585295e-02f, -2.956388891e-01f, -6.381888688e-02f, -1.544888467e-01f, -2.374173999e-01f, -5.552226678e-02f, 3.275065422e-01f, -2.550196461e-02f,
    2.801619768e-01f, 1.452706605e-01f, 3.242934644e-01f, 1.532950252e-01f, 2.411218584e-01f, -6.795697846e-03f, 2.177039534e-01f, 3.062109649e-01f,
    -2.382240891e-01f, -1.661253721e-02f, 1.099126711e-01f, 3.422224522e-02f, 4.786615074e-02f, -2.190538645e-01f, 1.662197262e-01f, -2.255832702e-01f,
    -2.519240081e-01f, -3.467655927e-02f, 2.318735421e-01f, -4.094398618e-01f, 1.016303059e-02f, 9.534043819e-02f, 1.289305240e-01f, 3.764261901e-01f,
    -2.745850384e-01f, 3.053911775e-02f, 2.700960040e-01f, 3.572393209e-03f, 3.308927268e-02f, 1.493153870e-01f, -1.106565446e-01f, -1.662844419e-01f,
    4.022849724e-03f, -4.822022282e-03f, -3.429278135e-01f, 1.322291642e-01f, -2.703830898e-01f, -5.284171179e-02f, -4.842078686e-02f, 2.892287076e-01f,
    -3.153768927e-02f, -2.698453963e-01f, -1.248225942e-01f, 1.077661887e-01f, 1.825726405e-02f, 3.063472807e-01f, -5.188590884e-01f, 1.667639315e-01f,
    1.672511101e-01f, 6.144825742e-02f, -2.649131790e-02f, 1.054926887e-01f, 4.633235559e-02f, 7.604341954e-02f, -2.333127260e-01f, -1.595600247e-01f,
    -5.551699996e-01f, -1.235267222e-01f, 1.425538212e-01f, -2.000152320e-02f, -2.539356053e-02f, 9.205487370e-02f, -3.831929713e-02f, -5.909954309e-01f,
    2.169866711e-01f, 1.592677981e-01f, -4.543504417e-01f, -5.456763785e-03f, -3.798334599e-01f, 3.036848009e-01f, -1.061129645e-01f, 1.392692327e-01f,
    7.092326996e-04f, -6.207048893e-01f, -7.128193229e-02f, 2.922465503e-01f, -3.002717905e-02f, 2.421075404e-01f, -5.136542916e-01f, -7.072594017e-02f,
    8.242884278e-02f, 1.797968447e-01f, -1.158577800e-01f, 3.299589753e-01f, -2.929944778e-03f, 1.196943894e-01f, -4.602806568e-01f, -1.386898607e-01f,
    -4.298723042e-01f, 9.026347101e-02f, 2.807624638e-01f, 1.645131409e-01f, 2.028318793e-01f, -6.339876354e-02f, 1.625226736e-01f, -3.650789857e-01f,
    3.220590353e-01f, 4.597717151e-02f, -4.784950912e-01f, 1.624957323e-01f, -2.917357981e-01f, 8.044434339e-02f, -1.086619869e-01f, 2.094886452e-01f,
    2.512350678e-01f, -5.135849714e-01f, 1.913939863e-01f, 1.320362985e-01f, 1.163374260e-01f, 2.065534443e-01f, -3.954451084e-01f, -6.443067640e-02f,
    2.886193059e-02f, -6.106358767e-02f, -1.579260528e-01f, 1.957316101e-01f, -8.307265118e-03f, 1.560268253e-01f, -2.974593639e-01f, -1.463810652e-01f,
    -6.023721695e-01f, 6.826446950e-02f, 9.369044751e-02f, 1.278360188e-01f, 9.502455592e-02f, -3.741104156e-03f, -3.821688518e-02f, -1.438002884e-01f,
    8.692669123e-02f, 1.111269966e-01f, -3.934929967e-01f, 1.918787360e-01f, -1.360134184e-01f, 2.513977885e-01f, -1.769773662e-02f, 1.109442413e-01f,
    1.903907061e-01f, -6.219127178e-01f, 9.179551154e-02f, 7.438780367e-02f, 4.152678326e-02f, 1.124064103e-01f, -2.038112283e-01f, 1.655211896e-01f,
    1.292445511e-01f, 2.361851931e-01f, -2.567733526e-01f, 1.862284392e-01f, 2.037336528e-01f, 2.987272441e-01f, -3.615525067e-01f, -7.747755945e-02f,
    -6.058020890e-02f, -2.236589789e-01f, -7.204775512e-02f, -1.425872743e-01f, -2.177871019e-01f, -3.047004342e-01f, 4.754981101e-01f, 1.714726090e-01f,
    1.062868461e-01f, 3.819853067e-02f, 1.432711631e-01f, 1.202004477e-01f, 1.679397672e-01f, 1.503978819e-01f, 1.207677349e-01f, 8.434793353e-02f,
    -3.022450395e-02f, 1.557627916e-01f, 2.132687122e-01f, -6.540658325e-02f, 6.207847595e-02f, -7.635739446e-02f, 1.885223389e-01f, -2.820377648e-01f,
    -7.045976073e-02f, -2.841991559e-02f, 2.637457848e-01f, -1.935157031e-01f, 1.260529608e-01f, 2.399381250e-01f, 1.032018960e-01f, 2.695888281e-01f,
    -5.184481740e-01f, 1.887035519e-01f, 6.794577092e-02f, 1.590227336e-01f, 1.425531805e-01f, 2.739071846e-01f, 1.002533361e-02f, -4.613458514e-01f,
    1.156848446e-01f, 1.494189501e-01f, -6.008142233e-01f, 1.011532322e-01f, -3.259948194e-01f, 1.352978200e-01f, -1.869810559e-02f, 3.457991779e-01f,
    1.200395450e-01f, -4.001071453e-01f, 8.257950842e-02f, 1.519117653e-01f, -1.124951988e-01f, 1.473948061e-01f, -6.013725400e-01f, -5.442310870e-02f,
    -2.298543975e-02f, 1.417633593e-01f, -1.292359382e-01f, 3.630806506e-01f, 2.341180444e-01f, 1.899250448e-01f, -3.358538449e-01f, -3.176237047e-01f,
    8.398918062e-02f, -2.513269484e-01f, -2.412649989e-02f, -7.967206091e-02f, -1.459855586e-01f, -1.708751768e-01f, -3.021861613e-02f, 1.912555397e-01f,
    2.754047811e-01f, 1.816708297e-01f, 1.461844444e-01f, 7.576318085e-02f, 1.746771634e-01f, 4.237144068e-02f, 2.259010375e-01f, 5.265292153e-02f,
    3.923053294e-02f, 9.530908614e-02f, 1.738407016e-01f, 5.842297524e-02f, 2.160505652e-01f, -2.247296870e-01f, 1.389767081e-01f, -7.349676639e-02f,
    -7.764039934e-02f, -1.330096871e-01f, 2.362959981e-01f, -4.497574270e-02f, -1.103999391e-01f, 1.045336276e-01f, 7.042270899e-02f, 7.141557336e-02f,
    -3.787528872e-01f, 3.958274424e-02f, 5.924328789e-02f, 4.439586028e-02f, 8.231621981e-02f, 3.375727832e-01f, 5.336935446e-02f, -1.721504480e-01f,
    2.091772705e-01f, 7.558022439e-02f, -3.332345188e-01f, 1.846977472e-01f, -3.255194426e-01f, 1.220240071e-01f, -1.330259293e-01f, 2.359721810e-01f,
    2.129185498e-01f, -3.460035920e-01f, 1.514370292e-01f, 1.923918128e-01f, -1.091057807e-01f, 1.276625246e-01f, -5.438712835e-01f, 7.925666869e-03f,
    1.622614563e-01f, 1.816784889e-01f, 1.478636730e-02f, 1.600573808e-01f, 8.670946956e-02f, 1.925673634e-01f, -2.776383460e-01f, -2.248059958e-01f,
    -6.055637002e-01f, 8.608011901e-02f, 1.838457733e-01f, 1.249468997e-01f, 3.302995116e-02f, 3.114403039e-02f, 7.336635143e-02f, -2.270950675e-01f,
    2.214011401e-01f, 1.088877246e-01f, -3.537956774e-01f, 1.308171600e-01f, -3.133170307e-01f, 1.841357052e-01f, -1.468257457e-01f, 2.247102112e-01f,
    1.614029706e-01f, -3.973045051e-01f, 8.326377720e-02f, 1.362675577e-01f, 1.579904407e-01f, 3.072492778e-01f, -5.131101012e-01f, 1.609718353e-01f,
    1.186942905e-01f, -2.735162899e-02f, -7.371003926e-02f, 1.611498892e-01f, 3.495509550e-02f, 1.848159283e-01f, -3.990076482e-01f, -5.223011971e-02f,
    -3.387192190e-01f, 1.468307376e-01f, -4.183987528e-02f, 4.826259986e-02f, 9.525218606e-02f, 2.789626718e-01f, -4.547858238e-02f, -2.415905148e-01f,
    1.028004065e-01f, 3.912054002e-02f, -1.754827946e-01f, 1.694317758e-01f, -1.877698898e-01f, 2.642652206e-02f, 4.797054455e-02f, 3.888006136e-02f,
    7.552086562e-02f, -2.373174280e-01f, 1.297573000e-01f, 5.561715737e-02f, -2.082269043e-01f, 1.202606708e-01f, -9.328775853e-02f, 1.306103170e-01f,
    2.096948922e-01f, 3.367576748e-02f, -3.705851734e-02f, -5.161692388e-03f, 1.544839442e-01f, 2.289131135e-01f, -6.207267940e-02f, -2.880820930e-01f,
    -3.103138297e-04f, -2.512918413e-01f, -2.330619097e-01f, -1.954925507e-01f, -2.729251087e-01f, -2.431094050e-01f, 3.477354646e-01f, 1.319154948e-01f,
    2.318632156e-01f, 1.520211250e-01f, 2.228546888e-02f, 6.108916178e-02f, 2.840931341e-02f, -5.500669032e-02f, 2.498457581e-01f, 2.941464446e-02f,
    -4.729329143e-03f, -6.472291797e-02f, 7.551781088e-02f, -1.012633443e-01f, 3.033900261e-01f, -2.052371651e-01f, 3.010907769e-01f, -2.795224190e-01f,
    -4.054576531e-02f, -2.227942646e-01f, 2.165994048e-01f, -1.556471288e-01f, 7.881177962e-02f, 1.216156185e-01f, 2.084930390e-01f, 2.914897501e-01f,
    -4.526550770e-01f, 8.034097403e-02f, 1.063213218e-02f, 1.963825673e-01f, 9.347800910e-02f, 6.276454031e-02f, -5.948778987e-02f, -1.485944390e-01f,
    4.480349272e-02f, 8.581011742e-02f, -1.934226304e-01f, 2.211842984e-01f, -5.047699437e-02f, 6.761167315e-04f, 5.088211223e-02f, 9.629879147e-02f,
    5.909903720e-02f, -2.933588326e-01f, 1.304789633e-01f, 2.316583097e-01f, -8.718680590e-03f, 2.402399629e-01f, -3.822351694e-01f, 7.758840919e-02f,
    -6.368032098e-02f, 1.232589111e-01f, -2.288546860e-01f, 1.142195687e-01f, 1.740387529e-01f, 2.767470479e-01f, -2.734850645e-01f, -2.883522511e-01f,
    7.020962983e-02f, -8.421958983e-02f, -1.148281097e-01f, -1.284620911e-01f, -2.629022002e-01f, -1.813055277e-01f, 2.939239144e-01f, 2.056569420e-02f,
    3.398974836e-01f, 1.774184108e-01f, 2.958450019e-01f, 7.177603245e-02f, 7.585585862e-02f, 1.212719977e-01f, 2.156382501e-01f, 2.678498924e-01f,
    -1.353447735e-01f, 1.641506702e-01f, 1.997414082e-01f, -1.350707263e-01f, 2.345519960e-01f, -2.414274663e-01f, 3.107564151e-01f, -2.519737482e-01f,
    -7.045598328e-02f, -7.056341320e-02f, -2.719105221e-02f, -3.561718762e-01f, -4.531350359e-02f, 1.992591769e-01f, 2.054761648e-01f, 1.267228872e-01f,
    3.870839253e-02f, -9.729363769e-02f, -1.238453537e-01f, -7.071148604e-03f, -1.279130131e-01f, -2.830182910e-01f, 2.100753337e-01f, 1.382516176e-01f,
    3.017905056e-01f, 1.109355092e-01f, 9.840668738e-02f, 7.641485333e-02f, 9.785092622e-02f, 6.539784372e-03f, 1.217829883e-01f, 3.834978864e-02f,
    3.334072232e-02f, 1.943047047e-01f, 1.712125242e-01f, -5.569380242e-03f, 2.583560348e-01f, -1.623233408e-01f, 5.436426401e-01f, 5.094792694e-02f,
    -1.929875463e-01f, 7.118394971e-02f, 2.046809196e-01f, -1.596707106e-01f, 7.774642110e-02f, 1.401345432e-01f, 2.496881485e-01f, 5.373368263e-01f,
    -5.775702745e-02f, -5.288846493e-01f, -2.977896631e-01f, -2.507127523e-01f, -4.278161228e-01f, -3.870165050e-01f, 3.826732635e-01f, 2.087246627e-01f,
    3.819878995e-01f, 1.975329816e-01f, 2.463584393e-01f, 6.892409921e-02f, -5.524902418e-02f, -6.776531786e-02f, 3.110403121e-01f, 1.177342236e-01f,
    -6.515800953e-02f, 9.228051640e-03f, 4.214128852e-02f, -3.063815534e-01f, 4.508831203e-01f, -3.004472852e-01f, 3.001569510e-01f, -3.536457121e-01f,
    -7.820416987e-02f, -2.316717505e-01f, 2.199126631e-01f, -1.197926030e-01f, 3.899312019e-02f, 1.067150682e-01f, 1.059556603e-01f, 2.815899849e-01f,
};
static const float B1[16] = {
    -1.434221566e-01f, 3.072490394e-01f, 3.850716650e-01f, 1.039729938e-01f, 9.669695050e-02f, -8.254987746e-02f, 4.000236988e-01f, -1.793554723e-01f,
    1.612078398e-01f, 6.575051695e-02f, 2.556400597e-01f, 3.436208144e-02f, 1.185246035e-01f, -8.528149873e-02f, -1.937635541e-01f, 1.550791971e-02f,
};

// Linear 16 -> 1   (W2[i])
static const float W2[16] = {
    3.935519755e-01f, -3.275165856e-01f, -5.625484586e-01f, -4.638590813e-01f, -2.934124470e-01f, 4.213609099e-01f, -2.714992464e-01f, 3.535517156e-01f,
    -3.297356963e-01f, -3.749980927e-01f, -2.971601486e-01f, 5.056526065e-01f, -3.638972938e-01f, 3.099541068e-01f, 3.282591701e-01f, 5.136425495e-01f,
};
static const float B2 = -7.174549997e-02f;

} // namespace lolprobw
#endif
